digraph Tree {
node [shape=box, fontname="helvetica"] ;
edge [fontname="helvetica"] ;
0 [label="dominant_freq <= 10943.163\nentropy = 1.364\nsamples = 255\nvalue = [154, 52, 49]"] ;
1 [label="entropy = 0.0\nsamples = 52\nvalue = [0, 52, 0]"] ;
0 -> 1 [labeldistance=2.5, labelangle=45, headlabel="True"] ;
2 [label="dominant_freq <= 60508.188\nentropy = 0.797\nsamples = 203\nvalue = [154, 0, 49]"] ;
0 -> 2 [labeldistance=2.5, labelangle=-45, headlabel="False"] ;
3 [label="average_entropy <= 1.825\nentropy = 0.971\nsamples = 80\nvalue = [32, 0, 48]"] ;
2 -> 3 ;
4 [label="entropy = 0.98\nsamples = 48\nvalue = [28, 0, 20]"] ;
3 -> 4 ;
5 [label="entropy = 0.544\nsamples = 32\nvalue = [4, 0, 28]"] ;
3 -> 5 ;
6 [label="x_mean <= 2507.748\nentropy = 0.068\nsamples = 123\nvalue = [122, 0, 1]"] ;
2 -> 6 ;
7 [label="entropy = 0.0\nsamples = 114\nvalue = [114, 0, 0]"] ;
6 -> 7 ;
8 [label="entropy = 0.503\nsamples = 9\nvalue = [8, 0, 1]"] ;
6 -> 8 ;
}