digraph Tree {
node [shape=box, fontname="helvetica"] ;
edge [fontname="helvetica"] ;
0 [label="dominant_freq <= 862.161\nentropy = 1.364\nsamples = 255\nvalue = [154, 52, 49]"] ;
1 [label="dominant_freq <= 98.099\nentropy = 1.262\nsamples = 74\nvalue = [9, 48, 17]"] ;
0 -> 1 [labeldistance=2.5, labelangle=45, headlabel="True"] ;
2 [label="average_entropy <= 3.056\nentropy = 0.179\nsamples = 37\nvalue = [1, 36, 0]"] ;
1 -> 2 ;
3 [label="entropy = 0.0\nsamples = 30\nvalue = [0, 30, 0]"] ;
2 -> 3 ;
4 [label="entropy = 0.592\nsamples = 7\nvalue = [1, 6, 0]"] ;
2 -> 4 ;
5 [label="average_entropy <= 2.038\nentropy = 1.52\nsamples = 37\nvalue = [8, 12, 17]"] ;
1 -> 5 ;
6 [label="entropy = 1.189\nsamples = 12\nvalue = [3, 8, 1]"] ;
5 -> 6 ;
7 [label="entropy = 1.299\nsamples = 25\nvalue = [5, 4, 16]"] ;
5 -> 7 ;
8 [label="dominant_freq <= 3030.629\nentropy = 0.82\nsamples = 181\nvalue = [145, 4, 32]"] ;
0 -> 8 [labeldistance=2.5, labelangle=-45, headlabel="False"] ;
9 [label="average_entropy <= 2.461\nentropy = 1.187\nsamples = 87\nvalue = [51, 4, 32]"] ;
8 -> 9 ;
10 [label="entropy = 0.907\nsamples = 46\nvalue = [37, 4, 5]"] ;
9 -> 10 ;
11 [label="entropy = 0.926\nsamples = 41\nvalue = [14, 0, 27]"] ;
9 -> 11 ;
12 [label="entropy = 0.0\nsamples = 94\nvalue = [94, 0, 0]"] ;
8 -> 12 ;
}